FANN_FLO_2.1
num_layers=3
learning_rate=0.700000
connection_rate=1.000000
network_type=0
learning_momentum=0.000000
training_algorithm=2
train_error_function=1
train_stop_function=0
cascade_output_change_fraction=0.010000
quickprop_decay=-0.000100
quickprop_mu=1.750000
rprop_increase_factor=1.200000
rprop_decrease_factor=0.500000
rprop_delta_min=0.000000
rprop_delta_max=50.000000
rprop_delta_zero=0.100000
cascade_output_stagnation_epochs=12
cascade_candidate_change_fraction=0.010000
cascade_candidate_stagnation_epochs=12
cascade_max_out_epochs=150
cascade_max_cand_epochs=150
cascade_num_candidate_groups=2
bit_fail_limit=3.49999994039535522461e-01
cascade_candidate_limit=1.00000000000000000000e+03
cascade_weight_multiplier=4.00000005960464477539e-01
cascade_activation_functions_count=10
cascade_activation_functions=3 5 7 8 10 11 14 15 16 17 
cascade_activation_steepnesses_count=4
cascade_activation_steepnesses=2.50000000000000000000e-01 5.00000000000000000000e-01 7.50000000000000000000e-01 1.00000000000000000000e+00 
layer_sizes=2 26 2 
scale_included=0
neurons (num_inputs, activation_function, activation_steepness)=(0, 0, 0.00000000000000000000e+00) (0, 0, 0.00000000000000000000e+00) (2, 5, 5.00000000000000000000e-01) (2, 5, 5.00000000000000000000e-01) (2, 5, 5.00000000000000000000e-01) (2, 5, 5.00000000000000000000e-01) (2, 5, 5.00000000000000000000e-01) (2, 5, 5.00000000000000000000e-01) (2, 5, 5.00000000000000000000e-01) (2, 5, 5.00000000000000000000e-01) (2, 5, 5.00000000000000000000e-01) (2, 5, 5.00000000000000000000e-01) (2, 5, 5.00000000000000000000e-01) (2, 5, 5.00000000000000000000e-01) (2, 5, 5.00000000000000000000e-01) (2, 5, 5.00000000000000000000e-01) (2, 5, 5.00000000000000000000e-01) (2, 5, 5.00000000000000000000e-01) (2, 5, 5.00000000000000000000e-01) (2, 5, 5.00000000000000000000e-01) (2, 5, 5.00000000000000000000e-01) (2, 5, 5.00000000000000000000e-01) (2, 5, 5.00000000000000000000e-01) (2, 5, 5.00000000000000000000e-01) (2, 5, 5.00000000000000000000e-01) (2, 5, 5.00000000000000000000e-01) (2, 5, 5.00000000000000000000e-01) (0, 5, 0.00000000000000000000e+00) (26, 0, 5.00000000000000000000e-01) (0, 0, 0.00000000000000000000e+00) 
connections (connected_to_neuron, weight)=(0, -5.36046139895915985107e-02) (1, 9.92231011390686035156e-01) (0, 1.49999987792968750000e+03) (1, 4.66251525878906250000e+01) (0, 8.83403259277343750000e+02) (1, 9.06122970581054687500e+01) (0, 1.49999987792968750000e+03) (1, 9.36103515625000000000e+01) (0, -5.63172288239002227783e-02) (1, 1.06217670440673828125e+00) (0, -6.32889717817306518555e-02) (1, 1.22694754600524902344e+00) (0, -4.49978187680244445801e-02) (1, -1.35319560766220092773e-01) (0, 1.49999987792968750000e+03) (1, 4.66185264587402343750e+01) (0, -6.33486732840538024902e-02) (1, 1.22921371459960937500e+00) (0, 1.49999987792968750000e+03) (1, 2.05700592041015625000e+02) (0, 1.49999987792968750000e+03) (1, 4.66158027648925781250e+01) (0, -6.36847913265228271484e-02) (1, 8.84794965386390686035e-02) (0, -4.95094545185565948486e-02) (1, 6.77493989467620849609e-01) (0, 1.49999987792968750000e+03) (1, 2.05691604614257812500e+02) (0, -6.21164105832576751709e-02) (1, 1.21092939376831054688e+00) (0, -4.35086637735366821289e-02) (1, 7.26844966411590576172e-02) (0, 3.27199287414550781250e+01) (1, 1.53581457138061523438e+01) (0, -6.20896257460117340088e-02) (1, 2.04251840710639953613e-01) (0, -6.22839517891407012939e-02) (1, 1.51883214712142944336e-01) (0, 1.49999987792968750000e+03) (1, 9.35488433837890625000e+01) (0, -5.71928173303604125977e-02) (1, 1.10107505321502685547e+00) (0, 8.83419677734375000000e+02) (1, 9.04709930419921875000e+01) (0, -4.37419340014457702637e-02) (1, -9.73061397671699523926e-02) (0, 3.73547302246093750000e+02) (1, 9.33148040771484375000e+01) (0, 8.83404235839843750000e+02) (1, 9.05401077270507812500e+01) (2, 1.58962273597717285156e+00) (3, -7.64628648757934570312e-01) (4, -7.58465886116027832031e-01) (5, -8.26546549797058105469e-01) (6, 1.64639770984649658203e+00) (7, 1.30592024326324462891e+00) (8, 9.68528747558593750000e+00) (9, -7.77783453464508056641e-01) (10, 1.29900181293487548828e+00) (11, -8.20261061191558837891e-01) (12, -7.97021925449371337891e-01) (13, 8.78549480438232421875e+00) (14, 9.98526096343994140625e+00) (15, -7.36699104309082031250e-01) (16, 1.34533476829528808594e+00) (17, 8.22275257110595703125e+00) (18, -2.50086069107055664062e-01) (19, 1.07122335433959960938e+01) (20, 8.47385787963867187500e+00) (21, -7.71741688251495361328e-01) (22, 4.91341018676757812500e+00) (23, -1.55258953571319580078e+00) (24, 9.72191905975341796875e+00) (25, -1.14090585708618164062e+00) (26, -7.33827590942382812500e-01) (27, -7.93401539325714111328e-01) 
